<?xml version="1.0"?>
<opencv_storage>
<cascade>
  <stageType>BOOST</stageType>
  <featureType>HAAR</featureType>
  <height>28</height>
  <width>28</width>
  <stageParams>
    <boostType>GAB</boostType>
    <minHitRate>9.9500000476837158e-01</minHitRate>
    <maxFalseAlarm>5.0000000000000000e-01</maxFalseAlarm>
    <weightTrimRate>9.4999999999999996e-01</weightTrimRate>
    <maxDepth>1</maxDepth>
    <maxWeakCount>100</maxWeakCount></stageParams>
  <featureParams>
    <maxCatCount>0</maxCatCount>
    <featSize>1</featSize>
    <mode>BASIC</mode></featureParams>
  <stageNum>13</stageNum>
  <stages>
    <!-- stage 0 -->
    <_>
      <maxWeakCount>3</maxWeakCount>
      <stageThreshold>-1.4713733196258545e+00</stageThreshold>
      <weakClassifiers>
        <_>
          <internalNodes>
            0 -1 45 6.6757157444953918e-02</internalNodes>
          <leafValues>
            -9.2531418800354004e-01 1.0769230872392654e-01</leafValues></_>
        <_>
          <internalNodes>
            0 -1 137 4.7557335346937180e-02</internalNodes>
          <leafValues>
            -7.6490968465805054e-01 3.9925935864448547e-01</leafValues></_>
        <_>
          <internalNodes>
            0 -1 7 1.0879240930080414e-02</internalNodes>
          <leafValues>
            -8.1415587663650513e-01 4.2359489202499390e-01</leafValues></_></weakClassifiers></_>
    <!-- stage 1 -->
    <_>
      <maxWeakCount>5</maxWeakCount>
      <stageThreshold>-1.5413724184036255e+00</stageThreshold>
      <weakClassifiers>
        <_>
          <internalNodes>
            0 -1 9 -5.7150192558765411e-02</internalNodes>
          <leafValues>
            3.1638416647911072e-01 -8.3026063442230225e-01</leafValues></_>
        <_>
          <internalNodes>
            0 -1 60 -1.5931095927953720e-02</internalNodes>
          <leafValues>
            2.5938299298286438e-01 -8.0664914846420288e-01</leafValues></_>
        <_>
          <internalNodes>
            0 -1 126 1.0668288171291351e-01</internalNodes>
          <leafValues>
            -5.6549751758575439e-01 4.5033404231071472e-01</leafValues></_>
        <_>
          <internalNodes>
            0 -1 35 7.4591971933841705e-03</internalNodes>
          <leafValues>
            -7.6392638683319092e-01 3.8670566678047180e-01</leafValues></_>
        <_>
          <internalNodes>
            0 -1 3 -3.7597950547933578e-02</internalNodes>
          <leafValues>
            4.0912964940071106e-01 -5.4938596487045288e-01</leafValues></_></weakClassifiers></_>
    <!-- stage 2 -->
    <_>
      <maxWeakCount>8</maxWeakCount>
      <stageThreshold>-1.6878788471221924e+00</stageThreshold>
      <weakClassifiers>
        <_>
          <internalNodes>
            0 -1 110 7.1992706507444382e-03</internalNodes>
          <leafValues>
            -8.5416668653488159e-01 -6.4516127109527588e-02</leafValues></_>
        <_>
          <internalNodes>
            0 -1 14 -2.8908550739288330e-02</internalNodes>
          <leafValues>
            4.0200030803680420e-01 -6.2647986412048340e-01</leafValues></_>
        <_>
          <internalNodes>
            0 -1 58 5.3357325494289398e-02</internalNodes>
          <leafValues>
            -5.9103000164031982e-01 3.5696846246719360e-01</leafValues></_>
        <_>
          <internalNodes>
            0 -1 145 1.4391874894499779e-02</internalNodes>
          <leafValues>
            -3.8397565484046936e-01 5.6752306222915649e-01</leafValues></_>
        <_>
          <internalNodes>
            0 -1 70 -5.2985822549089789e-05</internalNodes>
          <leafValues>
            2.6671242713928223e-01 -7.2327023744583130e-01</leafValues></_>
        <_>
          <internalNodes>
            0 -1 30 -8.4514580667018890e-03</internalNodes>
          <leafValues>
            3.4050437808036804e-01 -5.8311468362808228e-01</leafValues></_>
        <_>
          <internalNodes>
            0 -1 66 2.8504979610443115e-01</internalNodes>
          <leafValues>
            -3.8043060898780823e-01 6.2154000997543335e-01</leafValues></_>
        <_>
          <internalNodes>
            0 -1 48 1.5814497601240873e-03</internalNodes>
          <leafValues>
            -3.6852741241455078e-01 5.5194234848022461e-01</leafValues></_></weakClassifiers></_>
    <!-- stage 3 -->
    <_>
      <maxWeakCount>9</maxWeakCount>
      <stageThreshold>-1.7386711835861206e+00</stageThreshold>
      <weakClassifiers>
        <_>
          <internalNodes>
            0 -1 8 2.4110432714223862e-02</internalNodes>
          <leafValues>
            -8.2349121570587158e-01 9.0909093618392944e-02</leafValues></_>
        <_>
          <internalNodes>
            0 -1 127 5.0787311047315598e-03</internalNodes>
          <leafValues>
            -6.8393915891647339e-01 3.0615660548210144e-01</leafValues></_>
        <_>
          <internalNodes>
            0 -1 139 4.6364203095436096e-02</internalNodes>
          <leafValues>
            -4.4188904762268066e-01 3.8121891021728516e-01</leafValues></_>
        <_>
          <internalNodes>
            0 -1 117 -6.6292588599026203e-03</internalNodes>
          <leafValues>
            4.8061785101890564e-01 -3.5346552729606628e-01</leafValues></_>
        <_>
          <internalNodes>
            0 -1 100 2.4043012410402298e-02</internalNodes>
          <leafValues>
            1.8189358711242676e-01 -8.2032406330108643e-01</leafValues></_>
        <_>
          <internalNodes>
            0 -1 29 3.7298586685210466e-03</internalNodes>
          <leafValues>
            -7.1288329362869263e-01 2.5347048044204712e-01</leafValues></_>
        <_>
          <internalNodes>
            0 -1 95 1.5268124639987946e-02</internalNodes>
          <leafValues>
            -2.8393721580505371e-01 5.3683817386627197e-01</leafValues></_>
        <_>
          <internalNodes>
            0 -1 75 -2.8400966897606850e-02</internalNodes>
          <leafValues>
            3.5790953040122986e-01 -3.9030164480209351e-01</leafValues></_>
        <_>
          <internalNodes>
            0 -1 74 -1.8093820661306381e-02</internalNodes>
          <leafValues>
            -8.1716060638427734e-01 1.9802324473857880e-01</leafValues></_></weakClassifiers></_>
    <!-- stage 4 -->
    <_>
      <maxWeakCount>10</maxWeakCount>
      <stageThreshold>-2.0514361858367920e+00</stageThreshold>
      <weakClassifiers>
        <_>
          <internalNodes>
            0 -1 11 -5.8162551373243332e-02</internalNodes>
          <leafValues>
            1.1046511679887772e-01 -8.0418252944946289e-01</leafValues></_>
        <_>
          <internalNodes>
            0 -1 27 -1.1968460679054260e-01</internalNodes>
          <leafValues>
            2.2630251944065094e-01 -5.8159327507019043e-01</leafValues></_>
        <_>
          <internalNodes>
            0 -1 59 3.0409563332796097e-02</internalNodes>
          <leafValues>
            -5.4261010885238647e-01 3.4948208928108215e-01</leafValues></_>
        <_>
          <internalNodes>
            0 -1 15 -3.5600329283624887e-03</internalNodes>
          <leafValues>
            3.0682736635208130e-01 -4.0085822343826294e-01</leafValues></_>
        <_>
          <internalNodes>
            0 -1 107 2.5620302557945251e-01</internalNodes>
          <leafValues>
            -2.0401220023632050e-01 5.7384848594665527e-01</leafValues></_>
        <_>
          <internalNodes>
            0 -1 73 5.9981578961014748e-03</internalNodes>
          <leafValues>
            -3.1071829795837402e-01 4.7139340639114380e-01</leafValues></_>
        <_>
          <internalNodes>
            0 -1 141 4.2375602060928941e-04</internalNodes>
          <leafValues>
            -3.3672150969505310e-01 4.1043335199356079e-01</leafValues></_>
        <_>
          <internalNodes>
            0 -1 63 -3.5530283639673144e-05</internalNodes>
          <leafValues>
            3.0972316861152649e-01 -3.8446614146232605e-01</leafValues></_>
        <_>
          <internalNodes>
            0 -1 148 1.1544728651642799e-02</internalNodes>
          <leafValues>
            -1.7244550585746765e-01 7.0910793542861938e-01</leafValues></_>
        <_>
          <internalNodes>
            0 -1 44 -4.6166302636265755e-03</internalNodes>
          <leafValues>
            -8.1136924028396606e-01 1.7059010267257690e-01</leafValues></_></weakClassifiers></_>
    <!-- stage 5 -->
    <_>
      <maxWeakCount>14</maxWeakCount>
      <stageThreshold>-1.8869556188583374e+00</stageThreshold>
      <weakClassifiers>
        <_>
          <internalNodes>
            0 -1 136 6.0831576585769653e-02</internalNodes>
          <leafValues>
            -7.7682137489318848e-01 1.0931174457073212e-01</leafValues></_>
        <_>
          <internalNodes>
            0 -1 6 -6.1126090586185455e-02</internalNodes>
          <leafValues>
            1.2266286462545395e-01 -5.9579193592071533e-01</leafValues></_>
        <_>
          <internalNodes>
            0 -1 132 2.6342844590544701e-02</internalNodes>
          <leafValues>
            -3.9593344926834106e-01 3.7001320719718933e-01</leafValues></_>
        <_>
          <internalNodes>
            0 -1 85 -1.3608986511826515e-02</internalNodes>
          <leafValues>
            2.8010132908821106e-01 -5.6375563144683838e-01</leafValues></_>
        <_>
          <internalNodes>
            0 -1 68 -2.5758061558008194e-02</internalNodes>
          <leafValues>
            5.2017182111740112e-01 -2.3153722286224365e-01</leafValues></_>
        <_>
          <internalNodes>
            0 -1 90 2.5194482877850533e-03</internalNodes>
          <leafValues>
            -3.3634769916534424e-01 3.2659614086151123e-01</leafValues></_>
        <_>
          <internalNodes>
            0 -1 12 -1.3767355121672153e-03</internalNodes>
          <leafValues>
            3.0899861454963684e-01 -3.3994951844215393e-01</leafValues></_>
        <_>
          <internalNodes>
            0 -1 64 -1.6694706864655018e-03</internalNodes>
          <leafValues>
            -9.5859187841415405e-01 1.0075745731592178e-01</leafValues></_>
        <_>
          <internalNodes>
            0 -1 102 -5.5084833875298500e-03</internalNodes>
          <leafValues>
            3.4350788593292236e-01 -3.0527275800704956e-01</leafValues></_>
        <_>
          <internalNodes>
            0 -1 49 -5.8205088134855032e-04</internalNodes>
          <leafValues>
            2.0311057567596436e-01 -4.8567590117454529e-01</leafValues></_>
        <_>
          <internalNodes>
            0 -1 93 1.4516791328787804e-02</internalNodes>
          <leafValues>
            -2.0629771053791046e-01 4.9406155943870544e-01</leafValues></_>
        <_>
          <internalNodes>
            0 -1 19 1.2214615009725094e-02</internalNodes>
          <leafValues>
            -4.4514778256416321e-01 2.4842844903469086e-01</leafValues></_>
        <_>
          <internalNodes>
            0 -1 84 6.2032660935074091e-04</internalNodes>
          <leafValues>
            -3.2300722599029541e-01 3.1330740451812744e-01</leafValues></_>
        <_>
          <internalNodes>
            0 -1 33 -1.0373761877417564e-02</internalNodes>
          <leafValues>
            3.1678748130798340e-01 -3.3432018756866455e-01</leafValues></_></weakClassifiers></_>
    <!-- stage 6 -->
    <_>
      <maxWeakCount>13</maxWeakCount>
      <stageThreshold>-2.0820226669311523e+00</stageThreshold>
      <weakClassifiers>
        <_>
          <internalNodes>
            0 -1 25 9.0641416609287262e-03</internalNodes>
          <leafValues>
            -7.8629791736602783e-01 6.2893079593777657e-03</leafValues></_>
        <_>
          <internalNodes>
            0 -1 129 2.2570010274648666e-02</internalNodes>
          <leafValues>
            -3.9509662985801697e-01 4.5667865872383118e-01</leafValues></_>
        <_>
          <internalNodes>
            0 -1 135 1.1140196025371552e-01</internalNodes>
          <leafValues>
            -2.8879547119140625e-01 4.7270968556404114e-01</leafValues></_>
        <_>
          <internalNodes>
            0 -1 138 -6.8145822733640671e-03</internalNodes>
          <leafValues>
            2.5676622986793518e-01 -4.9272921681404114e-01</leafValues></_>
        <_>
          <internalNodes>
            0 -1 77 1.3673909415956587e-04</internalNodes>
          <leafValues>
            -4.0165436267852783e-01 2.6925465464591980e-01</leafValues></_>
        <_>
          <internalNodes>
            0 -1 87 1.0386675596237183e-02</internalNodes>
          <leafValues>
            -3.9637699723243713e-01 3.4186026453971863e-01</leafValues></_>
        <_>
          <internalNodes>
            0 -1 79 6.3739635515958071e-04</internalNodes>
          <leafValues>
            1.3361223042011261e-01 -7.2771358489990234e-01</leafValues></_>
        <_>
          <internalNodes>
            0 -1 38 8.9935269206762314e-03</internalNodes>
          <leafValues>
            1.3972854614257812e-01 -6.8051201105117798e-01</leafValues></_>
        <_>
          <internalNodes>
            0 -1 80 -1.1455167550593615e-03</internalNodes>
          <leafValues>
            -8.8167494535446167e-01 9.0752393007278442e-02</leafValues></_>
        <_>
          <internalNodes>
            0 -1 81 1.7191831022500992e-02</internalNodes>
          <leafValues>
            -2.0086401700973511e-01 5.2745133638381958e-01</leafValues></_>
        <_>
          <internalNodes>
            0 -1 37 2.8867246583104134e-03</internalNodes>
          <leafValues>
            -2.4456162750720978e-01 3.7330240011215210e-01</leafValues></_>
        <_>
          <internalNodes>
            0 -1 124 -2.8471479192376137e-02</internalNodes>
          <leafValues>
            -7.6862406730651855e-01 1.2888184189796448e-01</leafValues></_>
        <_>
          <internalNodes>
            0 -1 88 1.1990704387426376e-01</internalNodes>
          <leafValues>
            -1.3012664020061493e-01 8.9980810880661011e-01</leafValues></_></weakClassifiers></_>
    <!-- stage 7 -->
    <_>
      <maxWeakCount>13</maxWeakCount>
      <stageThreshold>-1.6504216194152832e+00</stageThreshold>
      <weakClassifiers>
        <_>
          <internalNodes>
            0 -1 10 1.8158573657274246e-02</internalNodes>
          <leafValues>
            -8.0961990356445312e-01 -1.7647059261798859e-01</leafValues></_>
        <_>
          <internalNodes>
            0 -1 57 -1.9899152219295502e-02</internalNodes>
          <leafValues>
            5.6601662188768387e-02 -5.4210543632507324e-01</leafValues></_>
        <_>
          <internalNodes>
            0 -1 99 4.5510657131671906e-02</internalNodes>
          <leafValues>
            1.2473651021718979e-01 -7.1543872356414795e-01</leafValues></_>
        <_>
          <internalNodes>
            0 -1 146 1.1276731267571449e-02</internalNodes>
          <leafValues>
            -3.3050754666328430e-01 2.9778456687927246e-01</leafValues></_>
        <_>
          <internalNodes>
            0 -1 5 2.2260952740907669e-02</internalNodes>
          <leafValues>
            -5.8115643262863159e-01 2.3227386176586151e-01</leafValues></_>
        <_>
          <internalNodes>
            0 -1 52 -2.5624392947065644e-05</internalNodes>
          <leafValues>
            2.3998041450977325e-01 -3.4883663058280945e-01</leafValues></_>
        <_>
          <internalNodes>
            0 -1 114 -8.4599701222032309e-04</internalNodes>
          <leafValues>
            -9.1912066936492920e-01 1.0323319584131241e-01</leafValues></_>
        <_>
          <internalNodes>
            0 -1 41 -5.3025404922664165e-03</internalNodes>
          <leafValues>
            -9.6614128351211548e-01 5.1600094884634018e-02</leafValues></_>
        <_>
          <internalNodes>
            0 -1 47 -2.9711582101299427e-05</internalNodes>
          <leafValues>
            2.7121075987815857e-01 -3.2566830515861511e-01</leafValues></_>
        <_>
          <internalNodes>
            0 -1 50 -3.0489900382235646e-05</internalNodes>
          <leafValues>
            1.9453644752502441e-01 -3.7185177206993103e-01</leafValues></_>
        <_>
          <internalNodes>
            0 -1 43 2.7293831110000610e-01</internalNodes>
          <leafValues>
            -2.7529475092887878e-01 3.2580074667930603e-01</leafValues></_>
        <_>
          <internalNodes>
            0 -1 76 2.7265457436442375e-02</internalNodes>
          <leafValues>
            -2.0101052522659302e-01 6.5068191289901733e-01</leafValues></_>
        <_>
          <internalNodes>
            0 -1 119 -1.6334755346179008e-03</internalNodes>
          <leafValues>
            -7.4443459510803223e-01 1.2650404870510101e-01</leafValues></_></weakClassifiers></_>
    <!-- stage 8 -->
    <_>
      <maxWeakCount>13</maxWeakCount>
      <stageThreshold>-1.6881510019302368e+00</stageThreshold>
      <weakClassifiers>
        <_>
          <internalNodes>
            0 -1 0 -4.5126534998416901e-02</internalNodes>
          <leafValues>
            2.6744186878204346e-01 -7.6502406597137451e-01</leafValues></_>
        <_>
          <internalNodes>
            0 -1 20 -1.7575129866600037e-02</internalNodes>
          <leafValues>
            2.5087937712669373e-01 -4.5091912150382996e-01</leafValues></_>
        <_>
          <internalNodes>
            0 -1 147 -3.1856581568717957e-02</internalNodes>
          <leafValues>
            5.5949145555496216e-01 -2.1945551037788391e-01</leafValues></_>
        <_>
          <internalNodes>
            0 -1 142 5.0331312231719494e-03</internalNodes>
          <leafValues>
            -1.8815247714519501e-01 5.4100984334945679e-01</leafValues></_>
        <_>
          <internalNodes>
            0 -1 31 -3.9660666137933731e-02</internalNodes>
          <leafValues>
            2.5156897306442261e-01 -3.8587272167205811e-01</leafValues></_>
        <_>
          <internalNodes>
            0 -1 83 6.4887432381510735e-03</internalNodes>
          <leafValues>
            -3.7882530689239502e-01 3.2481938600540161e-01</leafValues></_>
        <_>
          <internalNodes>
            0 -1 67 2.7775770425796509e-01</internalNodes>
          <leafValues>
            -3.7529185414314270e-01 3.3262383937835693e-01</leafValues></_>
        <_>
          <internalNodes>
            0 -1 96 -1.7436295747756958e-02</internalNodes>
          <leafValues>
            1.9499209523200989e-01 -4.9893084168434143e-01</leafValues></_>
        <_>
          <internalNodes>
            0 -1 26 3.3021852374076843e-02</internalNodes>
          <leafValues>
            1.9848257303237915e-01 -4.5197087526321411e-01</leafValues></_>
        <_>
          <internalNodes>
            0 -1 65 2.1022530272603035e-03</internalNodes>
          <leafValues>
            -2.7187946438789368e-01 3.1081050634384155e-01</leafValues></_>
        <_>
          <internalNodes>
            0 -1 53 -1.5551960095763206e-03</internalNodes>
          <leafValues>
            -9.3193763494491577e-01 9.0814173221588135e-02</leafValues></_>
        <_>
          <internalNodes>
            0 -1 56 -3.1976088881492615e-02</internalNodes>
          <leafValues>
            4.3456876277923584e-01 -2.0755055546760559e-01</leafValues></_>
        <_>
          <internalNodes>
            0 -1 82 9.3244500458240509e-03</internalNodes>
          <leafValues>
            -2.0562306046485901e-01 4.6023723483085632e-01</leafValues></_></weakClassifiers></_>
    <!-- stage 9 -->
    <_>
      <maxWeakCount>15</maxWeakCount>
      <stageThreshold>-1.6532304286956787e+00</stageThreshold>
      <weakClassifiers>
        <_>
          <internalNodes>
            0 -1 2 1.0812181979417801e-01</internalNodes>
          <leafValues>
            -7.6122081279754639e-01 2.7848100662231445e-01</leafValues></_>
        <_>
          <internalNodes>
            0 -1 24 -1.9747677445411682e-01</internalNodes>
          <leafValues>
            6.5962769091129303e-02 -5.4593455791473389e-01</leafValues></_>
        <_>
          <internalNodes>
            0 -1 18 -5.8866338804364204e-03</internalNodes>
          <leafValues>
            2.3404471576213837e-01 -3.9357987046241760e-01</leafValues></_>
        <_>
          <internalNodes>
            0 -1 116 -7.4042733758687973e-03</internalNodes>
          <leafValues>
            2.6388782262802124e-01 -3.7855380773544312e-01</leafValues></_>
        <_>
          <internalNodes>
            0 -1 115 1.6269234474748373e-03</internalNodes>
          <leafValues>
            1.1308149993419647e-01 -8.3980429172515869e-01</leafValues></_>
        <_>
          <internalNodes>
            0 -1 28 -7.4585080146789551e-03</internalNodes>
          <leafValues>
            3.5389286279678345e-01 -2.2677977383136749e-01</leafValues></_>
        <_>
          <internalNodes>
            0 -1 89 2.2632742911810055e-05</internalNodes>
          <leafValues>
            -3.4975534677505493e-01 2.6176312565803528e-01</leafValues></_>
        <_>
          <internalNodes>
            0 -1 1 1.7011471092700958e-02</internalNodes>
          <leafValues>
            -4.0988284349441528e-01 1.8482068181037903e-01</leafValues></_>
        <_>
          <internalNodes>
            0 -1 106 2.0623351633548737e-01</internalNodes>
          <leafValues>
            -2.4861544370651245e-01 3.5073143243789673e-01</leafValues></_>
        <_>
          <internalNodes>
            0 -1 46 4.9702748656272888e-03</internalNodes>
          <leafValues>
            -4.5858281850814819e-01 1.9410167634487152e-01</leafValues></_>
        <_>
          <internalNodes>
            0 -1 144 3.5601560026407242e-02</internalNodes>
          <leafValues>
            -1.5022918581962585e-01 6.1195206642150879e-01</leafValues></_>
        <_>
          <internalNodes>
            0 -1 17 2.3043014109134674e-02</internalNodes>
          <leafValues>
            -1.3416735827922821e-01 5.5418169498443604e-01</leafValues></_>
        <_>
          <internalNodes>
            0 -1 112 5.2361330017447472e-03</internalNodes>
          <leafValues>
            -1.3913373649120331e-01 5.1228803396224976e-01</leafValues></_>
        <_>
          <internalNodes>
            0 -1 98 -8.0940220504999161e-03</internalNodes>
          <leafValues>
            5.4467022418975830e-01 -1.5384902060031891e-01</leafValues></_>
        <_>
          <internalNodes>
            0 -1 111 2.1369048045016825e-04</internalNodes>
          <leafValues>
            -4.0120798349380493e-01 1.9735229015350342e-01</leafValues></_></weakClassifiers></_>
    <!-- stage 10 -->
    <_>
      <maxWeakCount>14</maxWeakCount>
      <stageThreshold>-1.8154025077819824e+00</stageThreshold>
      <weakClassifiers>
        <_>
          <internalNodes>
            0 -1 92 -4.3118409812450409e-02</internalNodes>
          <leafValues>
            6.6265058517456055e-01 -7.4773192405700684e-01</leafValues></_>
        <_>
          <internalNodes>
            0 -1 13 -2.9362920671701431e-02</internalNodes>
          <leafValues>
            4.7745379805564880e-01 -3.5376608371734619e-01</leafValues></_>
        <_>
          <internalNodes>
            0 -1 42 -7.3631023988127708e-03</internalNodes>
          <leafValues>
            2.7818888425827026e-01 -3.0276349186897278e-01</leafValues></_>
        <_>
          <internalNodes>
            0 -1 72 -7.8216678230091929e-04</internalNodes>
          <leafValues>
            -7.5808256864547729e-01 1.2055056542158127e-01</leafValues></_>
        <_>
          <internalNodes>
            0 -1 105 7.0706969127058983e-03</internalNodes>
          <leafValues>
            -2.2393289208412170e-01 3.3908206224441528e-01</leafValues></_>
        <_>
          <internalNodes>
            0 -1 140 2.7577331289649010e-02</internalNodes>
          <leafValues>
            -4.2683190107345581e-01 2.1135647594928741e-01</leafValues></_>
        <_>
          <internalNodes>
            0 -1 118 -1.2562958523631096e-02</internalNodes>
          <leafValues>
            3.4972235560417175e-01 -2.4026118218898773e-01</leafValues></_>
        <_>
          <internalNodes>
            0 -1 62 1.8996185390278697e-03</internalNodes>
          <leafValues>
            1.3222622871398926e-01 -7.9076117277145386e-01</leafValues></_>
        <_>
          <internalNodes>
            0 -1 51 -2.9772598281851970e-05</internalNodes>
          <leafValues>
            2.4177752435207367e-01 -3.5475194454193115e-01</leafValues></_>
        <_>
          <internalNodes>
            0 -1 36 -4.4862464070320129e-02</internalNodes>
          <leafValues>
            -8.4685981273651123e-01 9.6294626593589783e-02</leafValues></_>
        <_>
          <internalNodes>
            0 -1 71 5.1499055698513985e-03</internalNodes>
          <leafValues>
            -2.6028180122375488e-01 3.0946803092956543e-01</leafValues></_>
        <_>
          <internalNodes>
            0 -1 128 -5.8428654447197914e-03</internalNodes>
          <leafValues>
            -6.3896381855010986e-01 1.1097802221775055e-01</leafValues></_>
        <_>
          <internalNodes>
            0 -1 103 2.1880874410271645e-03</internalNodes>
          <leafValues>
            -2.0974384248256683e-01 3.4122890233993530e-01</leafValues></_>
        <_>
          <internalNodes>
            0 -1 131 6.9259945303201675e-03</internalNodes>
          <leafValues>
            -1.3171620666980743e-01 5.5231034755706787e-01</leafValues></_></weakClassifiers></_>
    <!-- stage 11 -->
    <_>
      <maxWeakCount>16</maxWeakCount>
      <stageThreshold>-1.6972725391387939e+00</stageThreshold>
      <weakClassifiers>
        <_>
          <internalNodes>
            0 -1 34 1.4148250222206116e-01</internalNodes>
          <leafValues>
            -7.4092358350753784e-01 8.9473682641983032e-01</leafValues></_>
        <_>
          <internalNodes>
            0 -1 4 2.9249921441078186e-02</internalNodes>
          <leafValues>
            -4.1811460256576538e-01 2.8504598140716553e-01</leafValues></_>
        <_>
          <internalNodes>
            0 -1 94 3.1970304250717163e-01</internalNodes>
          <leafValues>
            -1.9556172192096710e-01 4.2943093180656433e-01</leafValues></_>
        <_>
          <internalNodes>
            0 -1 130 -5.5497074499726295e-03</internalNodes>
          <leafValues>
            4.2685934901237488e-01 -2.0724356174468994e-01</leafValues></_>
        <_>
          <internalNodes>
            0 -1 123 6.9925365969538689e-03</internalNodes>
          <leafValues>
            9.4371989369392395e-02 -8.1644737720489502e-01</leafValues></_>
        <_>
          <internalNodes>
            0 -1 32 2.4132279679179192e-02</internalNodes>
          <leafValues>
            -3.4039017558097839e-01 2.7302524447441101e-01</leafValues></_>
        <_>
          <internalNodes>
            0 -1 108 -2.8533982113003731e-03</internalNodes>
          <leafValues>
            2.6139867305755615e-01 -3.0457535386085510e-01</leafValues></_>
        <_>
          <internalNodes>
            0 -1 120 -7.0580095052719116e-02</internalNodes>
          <leafValues>
            3.8795489072799683e-01 -2.6513344049453735e-01</leafValues></_>
        <_>
          <internalNodes>
            0 -1 101 -1.8687125295400620e-02</internalNodes>
          <leafValues>
            2.7300572395324707e-01 -3.1030559539794922e-01</leafValues></_>
        <_>
          <internalNodes>
            0 -1 40 -1.0500265489099547e-05</internalNodes>
          <leafValues>
            1.9981338083744049e-01 -3.5852348804473877e-01</leafValues></_>
        <_>
          <internalNodes>
            0 -1 122 1.1648724321275949e-03</internalNodes>
          <leafValues>
            7.4775807559490204e-02 -9.3321907520294189e-01</leafValues></_>
        <_>
          <internalNodes>
            0 -1 22 -7.3876352980732918e-03</internalNodes>
          <leafValues>
            3.3038526773452759e-01 -2.2492824494838715e-01</leafValues></_>
        <_>
          <internalNodes>
            0 -1 121 3.9908973121782765e-05</internalNodes>
          <leafValues>
            -3.5265991091728210e-01 2.2678010165691376e-01</leafValues></_>
        <_>
          <internalNodes>
            0 -1 69 -8.2335872575640678e-03</internalNodes>
          <leafValues>
            4.5953732728958130e-01 -1.7871810495853424e-01</leafValues></_>
        <_>
          <internalNodes>
            0 -1 78 2.8269550966797397e-05</internalNodes>
          <leafValues>
            -2.8052106499671936e-01 2.4675559997558594e-01</leafValues></_>
        <_>
          <internalNodes>
            0 -1 86 2.6356875896453857e-03</internalNodes>
          <leafValues>
            8.0352269113063812e-02 -8.0943357944488525e-01</leafValues></_></weakClassifiers></_>
    <!-- stage 12 -->
    <_>
      <maxWeakCount>16</maxWeakCount>
      <stageThreshold>-1.8799688816070557e+00</stageThreshold>
      <weakClassifiers>
        <_>
          <internalNodes>
            0 -1 91 1.0352363809943199e-02</internalNodes>
          <leafValues>
            -7.7515149116516113e-01 2.8999999165534973e-01</leafValues></_>
        <_>
          <internalNodes>
            0 -1 16 -2.9795769602060318e-02</internalNodes>
          <leafValues>
            7.1490889787673950e-01 -3.3044493198394775e-01</leafValues></_>
        <_>
          <internalNodes>
            0 -1 23 2.2439161315560341e-02</internalNodes>
          <leafValues>
            1.2238147854804993e-01 -6.6969692707061768e-01</leafValues></_>
        <_>
          <internalNodes>
            0 -1 113 2.1656355238519609e-04</internalNodes>
          <leafValues>
            -1.8694029748439789e-01 5.0160425901412964e-01</leafValues></_>
        <_>
          <internalNodes>
            0 -1 39 1.3039894402027130e-03</internalNodes>
          <leafValues>
            -2.7491319179534912e-01 3.2631754875183105e-01</leafValues></_>
        <_>
          <internalNodes>
            0 -1 97 -1.1877776123583317e-02</internalNodes>
          <leafValues>
            8.5778164863586426e-01 -8.7973505258560181e-02</leafValues></_>
        <_>
          <internalNodes>
            0 -1 109 2.1430665254592896e-01</internalNodes>
          <leafValues>
            -1.6777233779430389e-01 4.8046374320983887e-01</leafValues></_>
        <_>
          <internalNodes>
            0 -1 61 3.5704390029422939e-04</internalNodes>
          <leafValues>
            1.2347843497991562e-01 -6.7460185289382935e-01</leafValues></_>
        <_>
          <internalNodes>
            0 -1 21 -1.1900052428245544e-02</internalNodes>
          <leafValues>
            3.6641401052474976e-01 -2.4013006687164307e-01</leafValues></_>
        <_>
          <internalNodes>
            0 -1 104 1.2473401147872210e-03</internalNodes>
          <leafValues>
            -1.4613252878189087e-01 5.4837793111801147e-01</leafValues></_>
        <_>
          <internalNodes>
            0 -1 54 4.2786177247762680e-02</internalNodes>
          <leafValues>
            -1.3218943774700165e-01 6.3390576839447021e-01</leafValues></_>
        <_>
          <internalNodes>
            0 -1 125 -1.0298766428604722e-03</internalNodes>
          <leafValues>
            3.5931733250617981e-01 -2.2114956378936768e-01</leafValues></_>
        <_>
          <internalNodes>
            0 -1 133 -5.0122685730457306e-02</internalNodes>
          <leafValues>
            3.9918538928031921e-01 -2.4802660942077637e-01</leafValues></_>
        <_>
          <internalNodes>
            0 -1 134 1.1010374873876572e-02</internalNodes>
          <leafValues>
            -3.6404582858085632e-01 2.5390341877937317e-01</leafValues></_>
        <_>
          <internalNodes>
            0 -1 55 8.8648959994316101e-02</internalNodes>
          <leafValues>
            -1.7276808619499207e-01 5.1133596897125244e-01</leafValues></_>
        <_>
          <internalNodes>
            0 -1 143 -8.6485464125871658e-03</internalNodes>
          <leafValues>
            6.5325552225112915e-01 -1.1991336941719055e-01</leafValues></_></weakClassifiers></_></stages>
  <features>
    <_>
      <rects>
        <_>
          0 0 10 10 -1.</_>
        <_>
          0 0 5 5 2.</_>
        <_>
          5 5 5 5 2.</_></rects>
      <tilted>0</tilted></_>
    <_>
      <rects>
        <_>
          0 0 5 16 -1.</_>
        <_>
          0 8 5 8 2.</_></rects>
      <tilted>0</tilted></_>
    <_>
      <rects>
        <_>
          0 0 27 3 -1.</_>
        <_>
          9 0 9 3 3.</_></rects>
      <tilted>0</tilted></_>
    <_>
      <rects>
        <_>
          0 0 18 20 -1.</_>
        <_>
          0 0 9 10 2.</_>
        <_>
          9 10 9 10 2.</_></rects>
      <tilted>0</tilted></_>
    <_>
      <rects>
        <_>
          0 1 1 24 -1.</_>
        <_>
          0 13 1 12 2.</_></rects>
      <tilted>0</tilted></_>
    <_>
      <rects>
        <_>
          0 2 26 18 -1.</_>
        <_>
          0 11 26 9 2.</_></rects>
      <tilted>0</tilted></_>
    <_>
      <rects>
        <_>
          0 3 20 20 -1.</_>
        <_>
          0 3 10 10 2.</_>
        <_>
          10 13 10 10 2.</_></rects>
      <tilted>0</tilted></_>
    <_>
      <rects>
        <_>
          0 5 8 12 -1.</_>
        <_>
          0 11 8 6 2.</_></rects>
      <tilted>0</tilted></_>
    <_>
      <rects>
        <_>
          0 6 1 20 -1.</_>
        <_>
          0 16 1 10 2.</_></rects>
      <tilted>0</tilted></_>
    <_>
      <rects>
        <_>
          0 8 8 20 -1.</_>
        <_>
          0 8 4 10 2.</_>
        <_>
          4 18 4 10 2.</_></rects>
      <tilted>0</tilted></_>
    <_>
      <rects>
        <_>
          0 9 1 16 -1.</_>
        <_>
          0 17 1 8 2.</_></rects>
      <tilted>0</tilted></_>
    <_>
      <rects>
        <_>
          0 14 10 14 -1.</_>
        <_>
          0 14 5 7 2.</_>
        <_>
          5 21 5 7 2.</_></rects>
      <tilted>0</tilted></_>
    <_>
      <rects>
        <_>
          0 15 2 13 -1.</_>
        <_>
          1 15 1 13 2.</_></rects>
      <tilted>0</tilted></_>
    <_>
      <rects>
        <_>
          0 15 10 8 -1.</_>
        <_>
          0 15 5 4 2.</_>
        <_>
          5 19 5 4 2.</_></rects>
      <tilted>0</tilted></_>
    <_>
      <rects>
        <_>
          0 17 6 11 -1.</_>
        <_>
          3 17 3 11 2.</_></rects>
      <tilted>0</tilted></_>
    <_>
      <rects>
        <_>
          0 19 4 9 -1.</_>
        <_>
          2 19 2 9 2.</_></rects>
      <tilted>0</tilted></_>
    <_>
      <rects>
        <_>
          0 20 4 8 -1.</_>
        <_>
          0 24 4 4 2.</_></rects>
      <tilted>0</tilted></_>
    <_>
      <rects>
        <_>
          0 20 16 8 -1.</_>
        <_>
          0 20 8 4 2.</_>
        <_>
          8 24 8 4 2.</_></rects>
      <tilted>0</tilted></_>
    <_>
      <rects>
        <_>
          0 22 12 6 -1.</_>
        <_>
          4 22 4 6 3.</_></rects>
      <tilted>0</tilted></_>
    <_>
      <rects>
        <_>
          1 0 3 18 -1.</_>
        <_>
          1 9 3 9 2.</_></rects>
      <tilted>0</tilted></_>
    <_>
      <rects>
        <_>
          1 2 4 26 -1.</_>
        <_>
          1 2 2 13 2.</_>
        <_>
          3 15 2 13 2.</_></rects>
      <tilted>0</tilted></_>
    <_>
      <rects>
        <_>
          1 2 10 8 -1.</_>
        <_>
          1 2 5 4 2.</_>
        <_>
          6 6 5 4 2.</_></rects>
      <tilted>0</tilted></_>
    <_>
      <rects>
        <_>
          1 9 2 19 -1.</_>
        <_>
          2 9 1 19 2.</_></rects>
      <tilted>0</tilted></_>
    <_>
      <rects>
        <_>
          1 10 12 18 -1.</_>
        <_>
          7 10 6 18 2.</_></rects>
      <tilted>0</tilted></_>
    <_>
      <rects>
        <_>
          1 11 27 15 -1.</_>
        <_>
          10 11 9 15 3.</_></rects>
      <tilted>0</tilted></_>
    <_>
      <rects>
        <_>
          1 14 1 10 -1.</_>
        <_>
          1 19 1 5 2.</_></rects>
      <tilted>0</tilted></_>
    <_>
      <rects>
        <_>
          1 14 22 9 -1.</_>
        <_>
          12 14 11 9 2.</_></rects>
      <tilted>0</tilted></_>
    <_>
      <rects>
        <_>
          1 17 27 7 -1.</_>
        <_>
          10 17 9 7 3.</_></rects>
      <tilted>0</tilted></_>
    <_>
      <rects>
        <_>
          1 24 26 4 -1.</_>
        <_>
          1 26 26 2 2.</_></rects>
      <tilted>0</tilted></_>
    <_>
      <rects>
        <_>
          2 1 3 16 -1.</_>
        <_>
          2 9 3 8 2.</_></rects>
      <tilted>0</tilted></_>
    <_>
      <rects>
        <_>
          2 1 12 18 -1.</_>
        <_>
          2 1 6 9 2.</_>
        <_>
          8 10 6 9 2.</_></rects>
      <tilted>0</tilted></_>
    <_>
      <rects>
        <_>
          2 1 18 22 -1.</_>
        <_>
          2 1 9 11 2.</_>
        <_>
          11 12 9 11 2.</_></rects>
      <tilted>0</tilted></_>
    <_>
      <rects>
        <_>
          2 9 22 10 -1.</_>
        <_>
          2 14 22 5 2.</_></rects>
      <tilted>0</tilted></_>
    <_>
      <rects>
        <_>
          3 4 12 9 -1.</_>
        <_>
          7 4 4 9 3.</_></rects>
      <tilted>0</tilted></_>
    <_>
      <rects>
        <_>
          3 6 16 12 -1.</_>
        <_>
          3 10 16 4 3.</_></rects>
      <tilted>0</tilted></_>
    <_>
      <rects>
        <_>
          4 6 7 12 -1.</_>
        <_>
          4 12 7 6 2.</_></rects>
      <tilted>0</tilted></_>
    <_>
      <rects>
        <_>
          5 0 8 21 -1.</_>
        <_>
          9 0 4 21 2.</_></rects>
      <tilted>0</tilted></_>
    <_>
      <rects>
        <_>
          5 2 11 4 -1.</_>
        <_>
          5 4 11 2 2.</_></rects>
      <tilted>0</tilted></_>
    <_>
      <rects>
        <_>
          5 9 6 19 -1.</_>
        <_>
          8 9 3 19 2.</_></rects>
      <tilted>0</tilted></_>
    <_>
      <rects>
        <_>
          5 12 15 2 -1.</_>
        <_>
          5 13 15 1 2.</_></rects>
      <tilted>0</tilted></_>
    <_>
      <rects>
        <_>
          5 21 1 6 -1.</_>
        <_>
          5 24 1 3 2.</_></rects>
      <tilted>0</tilted></_>
    <_>
      <rects>
        <_>
          6 0 2 16 -1.</_>
        <_>
          7 0 1 16 2.</_></rects>
      <tilted>0</tilted></_>
    <_>
      <rects>
        <_>
          6 0 9 16 -1.</_>
        <_>
          9 0 3 16 3.</_></rects>
      <tilted>0</tilted></_>
    <_>
      <rects>
        <_>
          6 0 22 22 -1.</_>
        <_>
          17 0 11 22 2.</_></rects>
      <tilted>0</tilted></_>
    <_>
      <rects>
        <_>
          6 2 4 18 -1.</_>
        <_>
          6 11 4 9 2.</_></rects>
      <tilted>0</tilted></_>
    <_>
      <rects>
        <_>
          6 6 19 18 -1.</_>
        <_>
          6 12 19 6 3.</_></rects>
      <tilted>0</tilted></_>
    <_>
      <rects>
        <_>
          6 8 3 15 -1.</_>
        <_>
          6 13 3 5 3.</_></rects>
      <tilted>0</tilted></_>
    <_>
      <rects>
        <_>
          6 9 2 1 -1.</_>
        <_>
          7 9 1 1 2.</_></rects>
      <tilted>0</tilted></_>
    <_>
      <rects>
        <_>
          6 9 10 2 -1.</_>
        <_>
          6 10 10 1 2.</_></rects>
      <tilted>0</tilted></_>
    <_>
      <rects>
        <_>
          6 16 1 12 -1.</_>
        <_>
          6 22 1 6 2.</_></rects>
      <tilted>0</tilted></_>
    <_>
      <rects>
        <_>
          6 18 2 2 -1.</_>
        <_>
          6 19 2 1 2.</_></rects>
      <tilted>0</tilted></_>
    <_>
      <rects>
        <_>
          6 21 1 2 -1.</_>
        <_>
          6 22 1 1 2.</_></rects>
      <tilted>0</tilted></_>
    <_>
      <rects>
        <_>
          6 22 1 2 -1.</_>
        <_>
          6 23 1 1 2.</_></rects>
      <tilted>0</tilted></_>
    <_>
      <rects>
        <_>
          7 0 3 4 -1.</_>
        <_>
          8 0 1 4 3.</_></rects>
      <tilted>0</tilted></_>
    <_>
      <rects>
        <_>
          7 0 20 2 -1.</_>
        <_>
          17 0 10 2 2.</_></rects>
      <tilted>0</tilted></_>
    <_>
      <rects>
        <_>
          7 1 20 5 -1.</_>
        <_>
          17 1 10 5 2.</_></rects>
      <tilted>0</tilted></_>
    <_>
      <rects>
        <_>
          7 3 20 9 -1.</_>
        <_>
          7 6 20 3 3.</_></rects>
      <tilted>0</tilted></_>
    <_>
      <rects>
        <_>
          7 4 16 12 -1.</_>
        <_>
          7 8 16 4 3.</_></rects>
      <tilted>0</tilted></_>
    <_>
      <rects>
        <_>
          7 6 20 21 -1.</_>
        <_>
          7 13 20 7 3.</_></rects>
      <tilted>0</tilted></_>
    <_>
      <rects>
        <_>
          7 9 20 12 -1.</_>
        <_>
          7 13 20 4 3.</_></rects>
      <tilted>0</tilted></_>
    <_>
      <rects>
        <_>
          7 14 15 10 -1.</_>
        <_>
          7 19 15 5 2.</_></rects>
      <tilted>0</tilted></_>
    <_>
      <rects>
        <_>
          7 15 6 8 -1.</_>
        <_>
          7 19 6 4 2.</_></rects>
      <tilted>0</tilted></_>
    <_>
      <rects>
        <_>
          7 17 2 11 -1.</_>
        <_>
          8 17 1 11 2.</_></rects>
      <tilted>0</tilted></_>
    <_>
      <rects>
        <_>
          7 20 2 2 -1.</_>
        <_>
          7 21 2 1 2.</_></rects>
      <tilted>0</tilted></_>
    <_>
      <rects>
        <_>
          8 0 3 5 -1.</_>
        <_>
          9 0 1 5 3.</_></rects>
      <tilted>0</tilted></_>
    <_>
      <rects>
        <_>
          8 0 9 4 -1.</_>
        <_>
          8 2 9 2 2.</_></rects>
      <tilted>0</tilted></_>
    <_>
      <rects>
        <_>
          8 0 20 22 -1.</_>
        <_>
          18 0 10 22 2.</_></rects>
      <tilted>0</tilted></_>
    <_>
      <rects>
        <_>
          8 0 20 26 -1.</_>
        <_>
          18 0 10 26 2.</_></rects>
      <tilted>0</tilted></_>
    <_>
      <rects>
        <_>
          8 2 14 8 -1.</_>
        <_>
          8 6 14 4 2.</_></rects>
      <tilted>0</tilted></_>
    <_>
      <rects>
        <_>
          8 4 11 6 -1.</_>
        <_>
          8 6 11 2 3.</_></rects>
      <tilted>0</tilted></_>
    <_>
      <rects>
        <_>
          8 13 1 12 -1.</_>
        <_>
          8 19 1 6 2.</_></rects>
      <tilted>0</tilted></_>
    <_>
      <rects>
        <_>
          8 13 9 6 -1.</_>
        <_>
          8 15 9 2 3.</_></rects>
      <tilted>0</tilted></_>
    <_>
      <rects>
        <_>
          9 0 3 4 -1.</_>
        <_>
          10 0 1 4 3.</_></rects>
      <tilted>0</tilted></_>
    <_>
      <rects>
        <_>
          9 0 5 9 -1.</_>
        <_>
          9 3 5 3 3.</_></rects>
      <tilted>0</tilted></_>
    <_>
      <rects>
        <_>
          9 1 6 27 -1.</_>
        <_>
          12 1 3 27 2.</_></rects>
      <tilted>0</tilted></_>
    <_>
      <rects>
        <_>
          9 4 18 12 -1.</_>
        <_>
          15 4 6 12 3.</_></rects>
      <tilted>0</tilted></_>
    <_>
      <rects>
        <_>
          9 6 9 7 -1.</_>
        <_>
          12 6 3 7 3.</_></rects>
      <tilted>0</tilted></_>
    <_>
      <rects>
        <_>
          9 12 6 2 -1.</_>
        <_>
          9 13 6 1 2.</_></rects>
      <tilted>0</tilted></_>
    <_>
      <rects>
        <_>
          9 13 1 2 -1.</_>
        <_>
          9 14 1 1 2.</_></rects>
      <tilted>0</tilted></_>
    <_>
      <rects>
        <_>
          9 13 2 14 -1.</_>
        <_>
          9 20 2 7 2.</_></rects>
      <tilted>0</tilted></_>
    <_>
      <rects>
        <_>
          10 0 3 5 -1.</_>
        <_>
          11 0 1 5 3.</_></rects>
      <tilted>0</tilted></_>
    <_>
      <rects>
        <_>
          10 0 17 6 -1.</_>
        <_>
          10 2 17 2 3.</_></rects>
      <tilted>0</tilted></_>
    <_>
      <rects>
        <_>
          10 3 9 9 -1.</_>
        <_>
          10 6 9 3 3.</_></rects>
      <tilted>0</tilted></_>
    <_>
      <rects>
        <_>
          10 10 15 4 -1.</_>
        <_>
          10 12 15 2 2.</_></rects>
      <tilted>0</tilted></_>
    <_>
      <rects>
        <_>
          10 11 8 2 -1.</_>
        <_>
          10 12 8 1 2.</_></rects>
      <tilted>0</tilted></_>
    <_>
      <rects>
        <_>
          10 14 10 12 -1.</_>
        <_>
          10 20 10 6 2.</_></rects>
      <tilted>0</tilted></_>
    <_>
      <rects>
        <_>
          10 17 3 11 -1.</_>
        <_>
          11 17 1 11 3.</_></rects>
      <tilted>0</tilted></_>
    <_>
      <rects>
        <_>
          11 4 16 16 -1.</_>
        <_>
          11 4 8 8 2.</_>
        <_>
          19 12 8 8 2.</_></rects>
      <tilted>0</tilted></_>
    <_>
      <rects>
        <_>
          11 4 14 15 -1.</_>
        <_>
          11 9 14 5 3.</_></rects>
      <tilted>0</tilted></_>
    <_>
      <rects>
        <_>
          11 6 2 1 -1.</_>
        <_>
          12 6 1 1 2.</_></rects>
      <tilted>0</tilted></_>
    <_>
      <rects>
        <_>
          11 7 16 12 -1.</_>
        <_>
          11 7 8 6 2.</_>
        <_>
          19 13 8 6 2.</_></rects>
      <tilted>0</tilted></_>
    <_>
      <rects>
        <_>
          11 8 6 3 -1.</_>
        <_>
          13 8 2 3 3.</_></rects>
      <tilted>0</tilted></_>
    <_>
      <rects>
        <_>
          11 11 7 8 -1.</_>
        <_>
          11 15 7 4 2.</_></rects>
      <tilted>0</tilted></_>
    <_>
      <rects>
        <_>
          12 0 16 1 -1.</_>
        <_>
          20 0 8 1 2.</_></rects>
      <tilted>0</tilted></_>
    <_>
      <rects>
        <_>
          12 0 16 22 -1.</_>
        <_>
          20 0 8 22 2.</_></rects>
      <tilted>0</tilted></_>
    <_>
      <rects>
        <_>
          12 0 10 9 -1.</_>
        <_>
          12 3 10 3 3.</_></rects>
      <tilted>0</tilted></_>
    <_>
      <rects>
        <_>
          12 10 10 18 -1.</_>
        <_>
          12 19 10 9 2.</_></rects>
      <tilted>0</tilted></_>
    <_>
      <rects>
        <_>
          12 12 4 9 -1.</_>
        <_>
          12 15 4 3 3.</_></rects>
      <tilted>0</tilted></_>
    <_>
      <rects>
        <_>
          12 17 7 6 -1.</_>
        <_>
          12 19 7 2 3.</_></rects>
      <tilted>0</tilted></_>
    <_>
      <rects>
        <_>
          13 3 9 22 -1.</_>
        <_>
          13 14 9 11 2.</_></rects>
      <tilted>0</tilted></_>
    <_>
      <rects>
        <_>
          13 5 6 22 -1.</_>
        <_>
          13 16 6 11 2.</_></rects>
      <tilted>0</tilted></_>
    <_>
      <rects>
        <_>
          13 6 6 20 -1.</_>
        <_>
          13 16 6 10 2.</_></rects>
      <tilted>0</tilted></_>
    <_>
      <rects>
        <_>
          13 7 9 4 -1.</_>
        <_>
          16 7 3 4 3.</_></rects>
      <tilted>0</tilted></_>
    <_>
      <rects>
        <_>
          13 9 14 2 -1.</_>
        <_>
          13 10 14 1 2.</_></rects>
      <tilted>0</tilted></_>
    <_>
      <rects>
        <_>
          13 20 5 3 -1.</_>
        <_>
          13 21 5 1 3.</_></rects>
      <tilted>0</tilted></_>
    <_>
      <rects>
        <_>
          14 0 5 9 -1.</_>
        <_>
          14 3 5 3 3.</_></rects>
      <tilted>0</tilted></_>
    <_>
      <rects>
        <_>
          14 0 14 20 -1.</_>
        <_>
          21 0 7 20 2.</_></rects>
      <tilted>0</tilted></_>
    <_>
      <rects>
        <_>
          14 0 14 22 -1.</_>
        <_>
          21 0 7 22 2.</_></rects>
      <tilted>0</tilted></_>
    <_>
      <rects>
        <_>
          14 4 6 12 -1.</_>
        <_>
          16 4 2 12 3.</_></rects>
      <tilted>0</tilted></_>
    <_>
      <rects>
        <_>
          14 7 14 15 -1.</_>
        <_>
          21 7 7 15 2.</_></rects>
      <tilted>0</tilted></_>
    <_>
      <rects>
        <_>
          14 10 12 4 -1.</_>
        <_>
          14 12 12 2 2.</_></rects>
      <tilted>0</tilted></_>
    <_>
      <rects>
        <_>
          14 11 11 2 -1.</_>
        <_>
          14 12 11 1 2.</_></rects>
      <tilted>0</tilted></_>
    <_>
      <rects>
        <_>
          14 17 6 6 -1.</_>
        <_>
          14 19 6 2 3.</_></rects>
      <tilted>0</tilted></_>
    <_>
      <rects>
        <_>
          14 21 1 2 -1.</_>
        <_>
          14 22 1 1 2.</_></rects>
      <tilted>0</tilted></_>
    <_>
      <rects>
        <_>
          15 0 3 2 -1.</_>
        <_>
          16 0 1 2 3.</_></rects>
      <tilted>0</tilted></_>
    <_>
      <rects>
        <_>
          15 0 3 5 -1.</_>
        <_>
          16 0 1 5 3.</_></rects>
      <tilted>0</tilted></_>
    <_>
      <rects>
        <_>
          15 2 5 15 -1.</_>
        <_>
          15 7 5 5 3.</_></rects>
      <tilted>0</tilted></_>
    <_>
      <rects>
        <_>
          15 18 8 10 -1.</_>
        <_>
          15 18 4 5 2.</_>
        <_>
          19 23 4 5 2.</_></rects>
      <tilted>0</tilted></_>
    <_>
      <rects>
        <_>
          15 20 10 8 -1.</_>
        <_>
          15 20 5 4 2.</_>
        <_>
          20 24 5 4 2.</_></rects>
      <tilted>0</tilted></_>
    <_>
      <rects>
        <_>
          16 0 3 6 -1.</_>
        <_>
          17 0 1 6 3.</_></rects>
      <tilted>0</tilted></_>
    <_>
      <rects>
        <_>
          16 0 12 28 -1.</_>
        <_>
          20 0 4 28 3.</_></rects>
      <tilted>0</tilted></_>
    <_>
      <rects>
        <_>
          16 1 6 2 -1.</_>
        <_>
          16 2 6 1 2.</_></rects>
      <tilted>0</tilted></_>
    <_>
      <rects>
        <_>
          16 3 3 2 -1.</_>
        <_>
          17 3 1 2 3.</_></rects>
      <tilted>0</tilted></_>
    <_>
      <rects>
        <_>
          16 4 1 24 -1.</_>
        <_>
          16 16 1 12 2.</_></rects>
      <tilted>0</tilted></_>
    <_>
      <rects>
        <_>
          16 5 2 22 -1.</_>
        <_>
          16 16 2 11 2.</_></rects>
      <tilted>0</tilted></_>
    <_>
      <rects>
        <_>
          16 6 6 3 -1.</_>
        <_>
          18 6 2 3 3.</_></rects>
      <tilted>0</tilted></_>
    <_>
      <rects>
        <_>
          16 8 12 20 -1.</_>
        <_>
          22 8 6 20 2.</_></rects>
      <tilted>0</tilted></_>
    <_>
      <rects>
        <_>
          16 9 9 6 -1.</_>
        <_>
          16 12 9 3 2.</_></rects>
      <tilted>0</tilted></_>
    <_>
      <rects>
        <_>
          17 1 3 27 -1.</_>
        <_>
          18 1 1 27 3.</_></rects>
      <tilted>0</tilted></_>
    <_>
      <rects>
        <_>
          18 0 8 10 -1.</_>
        <_>
          18 0 4 5 2.</_>
        <_>
          22 5 4 5 2.</_></rects>
      <tilted>0</tilted></_>
    <_>
      <rects>
        <_>
          18 3 1 12 -1.</_>
        <_>
          18 7 1 4 3.</_></rects>
      <tilted>0</tilted></_>
    <_>
      <rects>
        <_>
          18 5 5 6 -1.</_>
        <_>
          18 7 5 2 3.</_></rects>
      <tilted>0</tilted></_>
    <_>
      <rects>
        <_>
          18 9 10 5 -1.</_>
        <_>
          23 9 5 5 2.</_></rects>
      <tilted>0</tilted></_>
    <_>
      <rects>
        <_>
          19 0 9 27 -1.</_>
        <_>
          22 0 3 27 3.</_></rects>
      <tilted>0</tilted></_>
    <_>
      <rects>
        <_>
          20 0 7 18 -1.</_>
        <_>
          20 9 7 9 2.</_></rects>
      <tilted>0</tilted></_>
    <_>
      <rects>
        <_>
          20 4 8 21 -1.</_>
        <_>
          24 4 4 21 2.</_></rects>
      <tilted>0</tilted></_>
    <_>
      <rects>
        <_>
          20 11 8 16 -1.</_>
        <_>
          20 11 4 8 2.</_>
        <_>
          24 19 4 8 2.</_></rects>
      <tilted>0</tilted></_>
    <_>
      <rects>
        <_>
          20 12 8 16 -1.</_>
        <_>
          24 12 4 16 2.</_></rects>
      <tilted>0</tilted></_>
    <_>
      <rects>
        <_>
          21 12 3 16 -1.</_>
        <_>
          21 20 3 8 2.</_></rects>
      <tilted>0</tilted></_>
    <_>
      <rects>
        <_>
          22 4 6 24 -1.</_>
        <_>
          25 4 3 24 2.</_></rects>
      <tilted>0</tilted></_>
    <_>
      <rects>
        <_>
          22 7 6 21 -1.</_>
        <_>
          25 7 3 21 2.</_></rects>
      <tilted>0</tilted></_>
    <_>
      <rects>
        <_>
          23 8 4 2 -1.</_>
        <_>
          23 9 4 1 2.</_></rects>
      <tilted>0</tilted></_>
    <_>
      <rects>
        <_>
          23 18 5 6 -1.</_>
        <_>
          23 21 5 3 2.</_></rects>
      <tilted>0</tilted></_>
    <_>
      <rects>
        <_>
          24 3 4 7 -1.</_>
        <_>
          26 3 2 7 2.</_></rects>
      <tilted>0</tilted></_>
    <_>
      <rects>
        <_>
          24 6 4 22 -1.</_>
        <_>
          24 6 2 11 2.</_>
        <_>
          26 17 2 11 2.</_></rects>
      <tilted>0</tilted></_>
    <_>
      <rects>
        <_>
          24 13 4 14 -1.</_>
        <_>
          26 13 2 14 2.</_></rects>
      <tilted>0</tilted></_>
    <_>
      <rects>
        <_>
          24 14 4 12 -1.</_>
        <_>
          26 14 2 12 2.</_></rects>
      <tilted>0</tilted></_>
    <_>
      <rects>
        <_>
          25 16 3 12 -1.</_>
        <_>
          25 22 3 6 2.</_></rects>
      <tilted>0</tilted></_>
    <_>
      <rects>
        <_>
          27 11 1 16 -1.</_>
        <_>
          27 19 1 8 2.</_></rects>
      <tilted>0</tilted></_></features></cascade>
</opencv_storage>
