<?xml version="1.0"?>
<opencv_storage>
<stage2>
  <maxWeakCount>8</maxWeakCount>
  <stageThreshold>-1.6878788471221924e+00</stageThreshold>
  <weakClassifiers>
    <_>
      <internalNodes>
        0 -1 230870 7.1992706507444382e-03</internalNodes>
      <leafValues>
        -8.5416668653488159e-01 -6.4516127109527588e-02</leafValues></_>
    <_>
      <internalNodes>
        0 -1 17919 -2.8908550739288330e-02</internalNodes>
      <leafValues>
        4.0200030803680420e-01 -6.2647986412048340e-01</leafValues></_>
    <_>
      <internalNodes>
        0 -1 137652 5.3357325494289398e-02</internalNodes>
      <leafValues>
        -5.9103000164031982e-01 3.5696846246719360e-01</leafValues></_>
    <_>
      <internalNodes>
        0 -1 295583 1.4391874894499779e-02</internalNodes>
      <leafValues>
        -3.8397565484046936e-01 5.6752306222915649e-01</leafValues></_>
    <_>
      <internalNodes>
        0 -1 157104 -5.2985822549089789e-05</internalNodes>
      <leafValues>
        2.6671242713928223e-01 -7.2327023744583130e-01</leafValues></_>
    <_>
      <internalNodes>
        0 -1 43129 -8.4514580667018890e-03</internalNodes>
      <leafValues>
        3.4050437808036804e-01 -5.8311468362808228e-01</leafValues></_>
    <_>
      <internalNodes>
        0 -1 147293 2.8504979610443115e-01</internalNodes>
      <leafValues>
        -3.8043060898780823e-01 6.2154000997543335e-01</leafValues></_>
    <_>
      <internalNodes>
        0 -1 123735 1.5814497601240873e-03</internalNodes>
      <leafValues>
        -3.6852741241455078e-01 5.5194234848022461e-01</leafValues></_></weakClassifiers></stage2>
</opencv_storage>
