<?xml version="1.0"?>
<opencv_storage>
<stage8>
  <maxWeakCount>13</maxWeakCount>
  <stageThreshold>-1.6881510019302368e+00</stageThreshold>
  <weakClassifiers>
    <_>
      <internalNodes>
        0 -1 396 -4.5126534998416901e-02</internalNodes>
      <leafValues>
        2.6744186878204346e-01 -7.6502406597137451e-01</leafValues></_>
    <_>
      <internalNodes>
        0 -1 24019 -1.7575129866600037e-02</internalNodes>
      <leafValues>
        2.5087937712669373e-01 -4.5091912150382996e-01</leafValues></_>
    <_>
      <internalNodes>
        0 -1 298005 -3.1856581568717957e-02</internalNodes>
      <leafValues>
        5.5949145555496216e-01 -2.1945551037788391e-01</leafValues></_>
    <_>
      <internalNodes>
        0 -1 293101 5.0331312231719494e-03</internalNodes>
      <leafValues>
        -1.8815247714519501e-01 5.4100984334945679e-01</leafValues></_>
    <_>
      <internalNodes>
        0 -1 43393 -3.9660666137933731e-02</internalNodes>
      <leafValues>
        2.5156897306442261e-01 -3.8587272167205811e-01</leafValues></_>
    <_>
      <internalNodes>
        0 -1 183893 6.4887432381510735e-03</internalNodes>
      <leafValues>
        -3.7882530689239502e-01 3.2481938600540161e-01</leafValues></_>
    <_>
      <internalNodes>
        0 -1 147297 2.7775770425796509e-01</internalNodes>
      <leafValues>
        -3.7529185414314270e-01 3.3262383937835693e-01</leafValues></_>
    <_>
      <internalNodes>
        0 -1 208790 -1.7436295747756958e-02</internalNodes>
      <leafValues>
        1.9499209523200989e-01 -4.9893084168434143e-01</leafValues></_>
    <_>
      <internalNodes>
        0 -1 36664 3.3021852374076843e-02</internalNodes>
      <leafValues>
        1.9848257303237915e-01 -4.5197087526321411e-01</leafValues></_>
    <_>
      <internalNodes>
        0 -1 147175 2.1022530272603035e-03</internalNodes>
      <leafValues>
        -2.7187946438789368e-01 3.1081050634384155e-01</leafValues></_>
    <_>
      <internalNodes>
        0 -1 130875 -1.5551960095763206e-03</internalNodes>
      <leafValues>
        -9.3193763494491577e-01 9.0814173221588135e-02</leafValues></_>
    <_>
      <internalNodes>
        0 -1 134951 -3.1976088881492615e-02</internalNodes>
      <leafValues>
        4.3456876277923584e-01 -2.0755055546760559e-01</leafValues></_>
    <_>
      <internalNodes>
        0 -1 178729 9.3244500458240509e-03</internalNodes>
      <leafValues>
        -2.0562306046485901e-01 4.6023723483085632e-01</leafValues></_></weakClassifiers></stage8>
</opencv_storage>
